digraph Tree {
node [shape=box] ;
0 [label="X[24] <= 0.5\nentropy = 0.797\nsamples = 22792\nvalue = [17297, 5495]"] ;
1 [label="X[97] <= 7073.5\nentropy = 0.35\nsamples = 12345\nvalue = [11533, 812]"] ;
0 -> 1 [labeldistance=2.5, labelangle=45, headlabel="True"] ;
2 [label="X[96] <= 12.5\nentropy = 0.285\nsamples = 12126\nvalue = [11525, 601]"] ;
1 -> 2 ;
3 [label="X[94] <= 26.5\nentropy = 0.171\nsamples = 9696\nvalue = [9449, 247]"] ;
2 -> 3 ;
4 [label="X[98] <= 2541.0\nentropy = 0.022\nsamples = 3828\nvalue = [3820, 8]"] ;
3 -> 4 ;
5 [label="entropy = 0.019\nsamples = 3827\nvalue = [3820, 7]"] ;
4 -> 5 ;
6 [label="entropy = 0.0\nsamples = 1\nvalue = [0, 1]"] ;
4 -> 6 ;
7 [label="X[99] <= 40.5\nentropy = 0.246\nsamples = 5868\nvalue = [5629, 239]"] ;
3 -> 7 ;
8 [label="entropy = 0.171\nsamples = 4574\nvalue = [4458, 116]"] ;
7 -> 8 ;
9 [label="entropy = 0.453\nsamples = 1294\nvalue = [1171, 123]"] ;
7 -> 9 ;
10 [label="X[94] <= 27.5\nentropy = 0.599\nsamples = 2430\nvalue = [2076, 354]"] ;
2 -> 10 ;
11 [label="X[98] <= 2116.0\nentropy = 0.137\nsamples = 729\nvalue = [715, 14]"] ;
10 -> 11 ;
12 [label="entropy = 0.122\nsamples = 725\nvalue = [713, 12]"] ;
11 -> 12 ;
13 [label="entropy = 1.0\nsamples = 4\nvalue = [2, 2]"] ;
11 -> 13 ;
14 [label="X[99] <= 42.5\nentropy = 0.722\nsamples = 1701\nvalue = [1361, 340]"] ;
10 -> 14 ;
15 [label="entropy = 0.523\nsamples = 1052\nvalue = [928, 124]"] ;
14 -> 15 ;
16 [label="entropy = 0.918\nsamples = 649\nvalue = [433, 216]"] ;
14 -> 16 ;
17 [label="X[97] <= 7669.5\nentropy = 0.226\nsamples = 219\nvalue = [8, 211]"] ;
1 -> 17 ;
18 [label="X[97] <= 7436.5\nentropy = 0.94\nsamples = 14\nvalue = [5, 9]"] ;
17 -> 18 ;
19 [label="entropy = 0.0\nsamples = 9\nvalue = [0, 9]"] ;
18 -> 19 ;
20 [label="entropy = 0.0\nsamples = 5\nvalue = [5, 0]"] ;
18 -> 20 ;
21 [label="X[94] <= 20.5\nentropy = 0.11\nsamples = 205\nvalue = [3, 202]"] ;
17 -> 21 ;
22 [label="entropy = 0.0\nsamples = 2\nvalue = [2, 0]"] ;
21 -> 22 ;
23 [label="X[5] <= 0.5\nentropy = 0.045\nsamples = 203\nvalue = [1, 202]"] ;
21 -> 23 ;
24 [label="entropy = 0.0\nsamples = 184\nvalue = [0, 184]"] ;
23 -> 24 ;
25 [label="entropy = 0.297\nsamples = 19\nvalue = [1, 18]"] ;
23 -> 25 ;
26 [label="X[96] <= 12.5\nentropy = 0.992\nsamples = 10447\nvalue = [5764, 4683]"] ;
0 -> 26 [labeldistance=2.5, labelangle=-45, headlabel="False"] ;
27 [label="X[97] <= 5095.5\nentropy = 0.917\nsamples = 7308\nvalue = [4884, 2424]"] ;
26 -> 27 ;
28 [label="X[96] <= 8.5\nentropy = 0.876\nsamples = 6929\nvalue = [4878, 2051]"] ;
27 -> 28 ;
29 [label="X[98] <= 1791.5\nentropy = 0.466\nsamples = 1132\nvalue = [1020, 112]"] ;
28 -> 29 ;
30 [label="entropy = 0.44\nsamples = 1109\nvalue = [1008, 101]"] ;
29 -> 30 ;
31 [label="entropy = 0.999\nsamples = 23\nvalue = [12, 11]"] ;
29 -> 31 ;
32 [label="X[94] <= 35.5\nentropy = 0.919\nsamples = 5797\nvalue = [3858, 1939]"] ;
28 -> 32 ;
33 [label="entropy = 0.739\nsamples = 1920\nvalue = [1519, 401]"] ;
32 -> 33 ;
34 [label="entropy = 0.969\nsamples = 3877\nvalue = [2339, 1538]"] ;
32 -> 34 ;
35 [label="X[94] <= 61.5\nentropy = 0.117\nsamples = 379\nvalue = [6, 373]"] ;
27 -> 35 ;
36 [label="entropy = 0.0\nsamples = 341\nvalue = [0, 341]"] ;
35 -> 36 ;
37 [label="X[97] <= 10585.5\nentropy = 0.629\nsamples = 38\nvalue = [6, 32]"] ;
35 -> 37 ;
38 [label="entropy = 0.811\nsamples = 24\nvalue = [6, 18]"] ;
37 -> 38 ;
39 [label="entropy = 0.0\nsamples = 14\nvalue = [0, 14]"] ;
37 -> 39 ;
40 [label="X[97] <= 5095.5\nentropy = 0.856\nsamples = 3139\nvalue = [880, 2259]"] ;
26 -> 40 ;
41 [label="X[98] <= 1782.5\nentropy = 0.913\nsamples = 2679\nvalue = [878, 1801]"] ;
40 -> 41 ;
42 [label="X[99] <= 31.0\nentropy = 0.945\nsamples = 2400\nvalue = [871, 1529]"] ;
41 -> 42 ;
43 [label="entropy = 0.957\nsamples = 211\nvalue = [131, 80]"] ;
42 -> 43 ;
44 [label="entropy = 0.923\nsamples = 2189\nvalue = [740, 1449]"] ;
42 -> 44 ;
45 [label="X[98] <= 1989.5\nentropy = 0.169\nsamples = 279\nvalue = [7, 272]"] ;
41 -> 45 ;
46 [label="entropy = 0.071\nsamples = 235\nvalue = [2, 233]"] ;
45 -> 46 ;
47 [label="entropy = 0.511\nsamples = 44\nvalue = [5, 39]"] ;
45 -> 47 ;
48 [label="X[94] <= 65.5\nentropy = 0.04\nsamples = 460\nvalue = [2, 458]"] ;
40 -> 48 ;
49 [label="entropy = 0.0\nsamples = 422\nvalue = [0, 422]"] ;
48 -> 49 ;
50 [label="X[97] <= 10585.5\nentropy = 0.297\nsamples = 38\nvalue = [2, 36]"] ;
48 -> 50 ;
51 [label="entropy = 0.567\nsamples = 15\nvalue = [2, 13]"] ;
50 -> 51 ;
52 [label="entropy = 0.0\nsamples = 23\nvalue = [0, 23]"] ;
50 -> 52 ;
}
